digraph Tree {
node [shape=box, style="filled, rounded", color="black", fontname=helvetica] ;
edge [fontname=helvetica] ;
0 [label="od280/od315稀释葡萄酒 <= 2.115\nentropy = 1.56\nsamples = 133\nvalue = [45, 54, 34]\nclass = 雪莉", fillcolor="#ebfcf2"] ;
1 [label="颜色强度 <= 3.56\nentropy = 0.414\nsamples = 36\nvalue = [0, 3, 33]\nclass = 贝尔摩德", fillcolor="#8c4be7"] ;
0 -> 1 [labeldistance=2.5, labelangle=45, headlabel="True"] ;
2 [label="entropy = 0.0\nsamples = 3\nvalue = [0, 3, 0]\nclass = 雪莉", fillcolor="#39e581"] ;
1 -> 2 ;
3 [label="entropy = 0.0\nsamples = 33\nvalue = [0, 0, 33]\nclass = 贝尔摩德", fillcolor="#8139e5"] ;
1 -> 3 ;
4 [label="酒精 <= 13.04\nentropy = 1.07\nsamples = 97\nvalue = [45, 51, 1]\nclass = 雪莉", fillcolor="#e8fcf0"] ;
0 -> 4 [labeldistance=2.5, labelangle=-45, headlabel="False"] ;
5 [label="脯氨酸 <= 1000.0\nentropy = 0.144\nsamples = 49\nvalue = [1, 48, 0]\nclass = 雪莉", fillcolor="#3de684"] ;
4 -> 5 ;
6 [label="entropy = 0.0\nsamples = 48\nvalue = [0, 48, 0]\nclass = 雪莉", fillcolor="#39e581"] ;
5 -> 6 ;
7 [label="entropy = 0.0\nsamples = 1\nvalue = [1, 0, 0]\nclass = 琴酒", fillcolor="#e58139"] ;
5 -> 7 ;
8 [label="镁 <= 89.5\nentropy = 0.481\nsamples = 48\nvalue = [44, 3, 1]\nclass = 琴酒", fillcolor="#e78c4b"] ;
4 -> 8 ;
9 [label="灰的碱性 <= 20.75\nentropy = 1.371\nsamples = 5\nvalue = [1, 3, 1]\nclass = 雪莉", fillcolor="#9cf2c0"] ;
8 -> 9 ;
10 [label="灰 <= 2.38\nentropy = 1.0\nsamples = 2\nvalue = [1, 0, 1]\nclass = 琴酒", fillcolor="#ffffff"] ;
9 -> 10 ;
11 [label="entropy = 0.0\nsamples = 1\nvalue = [0, 0, 1]\nclass = 贝尔摩德", fillcolor="#8139e5"] ;
10 -> 11 ;
12 [label="entropy = 0.0\nsamples = 1\nvalue = [1, 0, 0]\nclass = 琴酒", fillcolor="#e58139"] ;
10 -> 12 ;
13 [label="entropy = 0.0\nsamples = 3\nvalue = [0, 3, 0]\nclass = 雪莉", fillcolor="#39e581"] ;
9 -> 13 ;
14 [label="entropy = 0.0\nsamples = 43\nvalue = [43, 0, 0]\nclass = 琴酒", fillcolor="#e58139"] ;
8 -> 14 ;
}